digraph Tree {
node [shape=box, style="filled", color="black"] ;
0 [label="Salary <= 51950.0\ngini = 0.624\nsamples = 800\nvalue = [200, 401, 199]", fillcolor="#bdf6d5"] ;
1 [label="Salary <= 32600.0\ngini = 0.308\nsamples = 380\nvalue = [5, 309, 66]", fillcolor="#66eb9d"] ;
0 -> 1 [labeldistance=2.5, labelangle=45, headlabel="True"] ;
5 [label="Salary <= 26650.0\ngini = 0.045\nsamples = 218\nvalue = [0, 213, 5]", fillcolor="#3ee684"] ;
1 -> 5 ;
47 [label="gini = 0.0\nsamples = 184\nvalue = [0, 184, 0]", fillcolor="#39e581"] ;
5 -> 47 ;
48 [label="gini = 0.251\nsamples = 34\nvalue = [0, 29, 5]", fillcolor="#5be997"] ;
5 -> 48 ;
6 [label="Catalogs <= 15.0\ngini = 0.506\nsamples = 162\nvalue = [5, 96, 61]", fillcolor="#baf6d3"] ;
1 -> 6 ;
11 [label="Catalogs <= 9.0\ngini = 0.343\nsamples = 91\nvalue = [0, 71, 20]", fillcolor="#71eca4"] ;
6 -> 11 ;
21 [label="gini = 0.095\nsamples = 40\nvalue = [0, 38, 2]", fillcolor="#43e688"] ;
11 -> 21 ;
22 [label="Far <= 0.5\ngini = 0.457\nsamples = 51\nvalue = [0, 33, 18]", fillcolor="#a5f3c6"] ;
11 -> 22 ;
35 [label="gini = 0.388\nsamples = 38\nvalue = [0, 28, 10]", fillcolor="#80eeae"] ;
22 -> 35 ;
36 [label="gini = 0.473\nsamples = 13\nvalue = [0, 5, 8]", fillcolor="#d0b5f5"] ;
22 -> 36 ;
12 [label="Children <= 0.5\ngini = 0.538\nsamples = 71\nvalue = [5, 25, 41]", fillcolor="#d3baf6"] ;
6 -> 12 ;
29 [label="Far <= 0.5\ngini = 0.498\nsamples = 36\nvalue = [5, 7, 24]", fillcolor="#b58bf0"] ;
12 -> 29 ;
45 [label="gini = 0.451\nsamples = 30\nvalue = [2, 7, 21]", fillcolor="#b286ef"] ;
29 -> 45 ;
46 [label="gini = 0.5\nsamples = 6\nvalue = [3, 0, 3]", fillcolor="#ffffff"] ;
29 -> 46 ;
30 [label="Close <= 0.5\ngini = 0.5\nsamples = 35\nvalue = [0, 18, 17]", fillcolor="#f4fef8"] ;
12 -> 30 ;
41 [label="gini = 0.426\nsamples = 13\nvalue = [0, 4, 9]", fillcolor="#b991f1"] ;
30 -> 41 ;
42 [label="gini = 0.463\nsamples = 22\nvalue = [0, 14, 8]", fillcolor="#aaf4c9"] ;
30 -> 42 ;
2 [label="Catalogs <= 15.0\ngini = 0.636\nsamples = 420\nvalue = [195, 92, 133]", fillcolor="#f9e4d4"] ;
0 -> 2 [labeldistance=2.5, labelangle=-45, headlabel="False"] ;
3 [label="Children <= 1.5\ngini = 0.655\nsamples = 197\nvalue = [49, 78, 70]", fillcolor="#f3fdf7"] ;
2 -> 3 ;
9 [label="Close <= 0.5\ngini = 0.651\nsamples = 125\nvalue = [43, 30, 52]", fillcolor="#f1e9fc"] ;
3 -> 9 ;
13 [label="Catalogs <= 9.0\ngini = 0.401\nsamples = 28\nvalue = [21, 2, 5]", fillcolor="#eda775"] ;
9 -> 13 ;
27 [label="gini = 0.642\nsamples = 9\nvalue = [3, 2, 4]", fillcolor="#eadefb"] ;
13 -> 27 ;
28 [label="gini = 0.1\nsamples = 19\nvalue = [18, 0, 1]", fillcolor="#e68844"] ;
13 -> 28 ;
14 [label="Salary <= 102050.0\ngini = 0.63\nsamples = 97\nvalue = [22, 28, 47]", fillcolor="#dcc8f8"] ;
9 -> 14 ;
15 [label="gini = 0.573\nsamples = 81\nvalue = [9, 28, 44]", fillcolor="#d9c3f7"] ;
14 -> 15 ;
16 [label="gini = 0.305\nsamples = 16\nvalue = [13, 0, 3]", fillcolor="#eb9e67"] ;
14 -> 16 ;
10 [label="Salary <= 118200.0\ngini = 0.486\nsamples = 72\nvalue = [6, 48, 18]", fillcolor="#91f1b9"] ;
3 -> 10 ;
23 [label="Close <= 0.5\ngini = 0.437\nsamples = 68\nvalue = [3, 48, 17]", fillcolor="#87efb2"] ;
10 -> 23 ;
39 [label="gini = 0.58\nsamples = 10\nvalue = [1, 4, 5]", fillcolor="#eadefb"] ;
23 -> 39 ;
40 [label="gini = 0.38\nsamples = 58\nvalue = [2, 44, 12]", fillcolor="#75eda7"] ;
23 -> 40 ;
24 [label="Salary <= 136100.0\ngini = 0.375\nsamples = 4\nvalue = [3, 0, 1]", fillcolor="#eeab7b"] ;
10 -> 24 ;
43 [label="gini = 0.0\nsamples = 3\nvalue = [3, 0, 0]", fillcolor="#e58139"] ;
24 -> 43 ;
44 [label="gini = 0.0\nsamples = 1\nvalue = [0, 0, 1]", fillcolor="#8139e5"] ;
24 -> 44 ;
4 [label="Salary <= 68650.0\ngini = 0.488\nsamples = 223\nvalue = [146, 14, 63]", fillcolor="#f2be98"] ;
2 -> 4 ;
7 [label="Far <= 0.5\ngini = 0.57\nsamples = 77\nvalue = [30, 7, 40]", fillcolor="#e4d5f9"] ;
4 -> 7 ;
17 [label="Children <= 1.5\ngini = 0.492\nsamples = 46\nvalue = [8, 7, 31]", fillcolor="#b387ef"] ;
7 -> 17 ;
25 [label="gini = 0.401\nsamples = 40\nvalue = [7, 3, 30]", fillcolor="#a775ed"] ;
17 -> 25 ;
26 [label="gini = 0.5\nsamples = 6\nvalue = [1, 4, 1]", fillcolor="#88efb3"] ;
17 -> 26 ;
18 [label="Children <= 0.5\ngini = 0.412\nsamples = 31\nvalue = [22, 0, 9]", fillcolor="#f0b58a"] ;
7 -> 18 ;
19 [label="gini = 0.105\nsamples = 18\nvalue = [17, 0, 1]", fillcolor="#e78845"] ;
18 -> 19 ;
20 [label="gini = 0.473\nsamples = 13\nvalue = [5, 0, 8]", fillcolor="#d0b5f5"] ;
18 -> 20 ;
8 [label="Children <= 1.5\ngini = 0.342\nsamples = 146\nvalue = [116, 7, 23]", fillcolor="#eba069"] ;
4 -> 8 ;
31 [label="Salary <= 96750.0\ngini = 0.243\nsamples = 106\nvalue = [91, 0, 15]", fillcolor="#e9965a"] ;
8 -> 31 ;
37 [label="gini = 0.333\nsamples = 71\nvalue = [56, 0, 15]", fillcolor="#eca36e"] ;
31 -> 37 ;
38 [label="gini = 0.0\nsamples = 35\nvalue = [35, 0, 0]", fillcolor="#e58139"] ;
31 -> 38 ;
32 [label="Far <= 0.5\ngini = 0.539\nsamples = 40\nvalue = [25, 7, 8]", fillcolor="#f1bc96"] ;
8 -> 32 ;
33 [label="gini = 0.64\nsamples = 22\nvalue = [10, 7, 5]", fillcolor="#fae6d7"] ;
32 -> 33 ;
34 [label="gini = 0.278\nsamples = 18\nvalue = [15, 0, 3]", fillcolor="#ea9a61"] ;
32 -> 34 ;
}